nep4 1 C 
cutoff 7 4 172 36
n_max 6 3
basis_size 8 8
l_max 4 2 0
ANN 50 0
 -7.7039331e-02
  3.6696128e-03
  1.6760874e-03
 -5.0558290e-03
  1.4100571e-02
 -4.1018506e-03
 -5.6677666e-03
 -1.0010131e-02
 -8.5904822e-03
  2.8474638e-03
 -1.2650410e-02
 -6.9295056e-04
  1.8441828e-02
 -1.4603687e-03
  5.0636665e-03
 -5.6180828e-03
 -1.2157016e-03
 -2.6477849e-02
 -4.6088086e-03
 -4.2551304e-03
 -5.9049350e-04
  2.0655561e-03
  9.2754252e-03
  1.0487967e-02
 -1.8910120e-03
  2.9221158e-03
  1.6883295e-03
  2.0136647e-01
 -1.5436077e-01
  1.3388055e-02
  3.6675613e-02
 -6.4647733e-04
  1.6306694e-01
  1.9754346e-01
 -1.2886168e-01
 -2.7207240e-01
  2.8059271e-01
 -3.9284497e-01
 -1.9972444e-02
  3.4728536e-01
 -8.6614743e-02
  1.9919701e-02
  7.4613917e-01
 -3.6824065e-01
 -2.0102619e-03
 -1.4496493e-01
 -1.4478585e-01
 -1.6594122e-04
 -1.2615653e-02
  2.3440565e-03
 -1.9894160e-02
  4.6787923e-03
  2.9978433e-03
 -4.6197074e-03
 -1.7904089e-01
  1.2356459e-02
 -1.0537491e-02
  2.8611159e-01
  3.8428336e-02
 -5.0692230e-01
  2.8707179e-01
  6.0816994e-03
  8.7172292e-02
  9.7518187e-04
  9.4885908e-02
  4.1817696e-04
 -1.2765686e-01
  4.2864247e-03
 -2.4072202e-02
 -1.0617652e+00
  2.5209850e-01
 -3.1561737e-03
  1.0873282e-02
  1.5508126e-02
 -2.4947671e-03
 -1.3077992e-02
  1.6991954e-02
  1.8708551e-02
 -3.6408387e-03
  2.4235547e-03
 -1.5279441e-03
  1.5118895e-03
  7.4350187e-03
  3.3918612e-03
 -6.7609409e-04
 -6.1939717e-03
  2.5148864e-03
  2.6505939e-03
 -6.8732239e-03
 -2.1660673e-03
  7.7697996e-04
 -2.7365445e-03
 -1.9944408e-03
  1.7120934e-03
 -1.9613698e-03
 -3.2946765e-03
 -5.3004851e-03
  1.8438539e-03
  8.6274231e-03
  5.4817535e-03
  5.0921907e-04
 -1.9852321e-03
 -5.2915341e-03
 -7.1542710e-03
  1.5902112e-03
  1.5458968e-03
  1.2778923e-02
  6.4946297e-03
 -5.3202192e-04
  4.5658634e-03
  1.0864695e-02
 -6.2454474e-04
  5.4216990e-03
  5.1802676e-03
 -3.0023631e-04
 -2.1102335e-02
  3.5041030e-03
 -7.2896527e-03
 -1.5898638e-04
  3.2913147e-03
  3.3358566e-03
 -4.2988593e-03
 -4.9935454e-03
  6.3534896e-04
  4.4977391e-04
 -1.4746001e-02
 -2.8335049e-03
 -3.8063552e-03
  5.4060743e-04
  2.1258588e-03
  1.8156931e-03
  1.6380124e-02
  1.0825555e-03
 -2.0089301e-03
  2.0333033e-03
  1.0633201e-02
 -6.6538644e-03
  2.2553241e-04
 -9.4422186e-03
  6.5954044e-03
  3.7074808e-03
  4.7901752e-03
 -7.1355316e-04
 -1.6658243e-02
  1.9717088e-03
 -3.5099548e-03
 -1.6439663e-03
  6.0534570e-04
  1.8470340e-03
 -6.9274204e-03
 -1.5833741e-02
  8.7832368e-04
  3.7693247e-04
  7.6002479e-03
  5.4226681e-03
 -7.2692626e-04
  3.4101398e-03
  6.4869266e-04
 -1.2188076e-02
 -6.0594110e-03
  4.9588323e-04
 -5.2721174e-03
  1.6204128e-04
 -2.3713849e-04
 -3.2287515e-03
  5.6516414e-04
  7.5036655e-03
 -6.4519322e-03
 -8.4615694e-03
  3.2759786e-03
  7.1424651e-03
  2.3244505e-03
 -1.4320477e-02
  3.0922028e-04
  3.5607358e-03
  9.8396279e-03
 -2.1445246e-02
  1.9388141e-03
 -8.8553270e-03
  1.4701218e-03
 -1.9466745e-03
 -8.0106733e-03
  9.6568968e-03
  2.6735626e-03
 -3.4705797e-04
 -7.1739997e-03
 -4.0903878e-03
  2.4978698e-03
 -1.9301582e-02
 -3.3769887e-02
  3.4614431e-03
 -7.1788346e-03
  2.7575379e-03
 -6.3803336e-03
  3.0119019e-02
  5.2811136e-03
 -1.1451122e-02
 -2.9775833e-03
  1.2927505e-02
 -2.6926112e-03
 -5.0170696e-03
  3.3815330e-04
 -1.3059115e-02
  7.2969467e-04
 -5.4060621e-03
 -8.0545945e-03
  3.6455982e-03
 -4.2659547e-03
 -6.0172221e-03
 -2.2076031e-03
  1.4879309e-03
 -8.7673459e-03
 -5.2688550e-03
  2.1845072e-03
 -9.4642455e-04
 -1.3116702e-03
 -2.8718510e-03
  3.2351504e-03
  2.4368153e-03
  1.3414843e-03
  6.3917967e-03
  1.5370708e-03
  4.1356395e-04
  1.5130702e-02
 -1.0304437e-02
  7.5467308e-03
  7.1894499e-03
 -4.9041118e-03
  5.5633620e-03
  8.8393390e-03
  1.4168736e-02
  4.2407843e-03
  2.8586604e-03
 -3.4695698e-03
  1.5656143e-02
 -6.5621189e-03
  4.6225600e-03
  2.6994147e-03
  1.8089460e-03
 -1.5272051e-03
 -1.2396338e-02
 -4.9762530e-03
  1.7579896e-03
 -8.3207879e-03
 -2.4310527e-03
 -3.7963649e-03
  3.5892478e-03
  5.6617530e-03
  1.7980473e-03
  6.3276594e-04
 -1.4422957e-03
 -1.3256250e-03
 -8.1052224e-04
 -7.3661056e-04
 -5.0249719e-04
 -3.8587558e-04
  1.8085006e-03
  5.2932031e-03
  1.5500125e-02
 -7.0349206e-03
  1.0724464e-02
 -3.1917178e-04
  1.1189243e-02
  1.2544253e-02
  1.3193978e-02
 -8.0280462e-03
  2.7521478e-03
 -4.1171777e-04
 -5.1074922e-03
 -2.0448235e-03
  8.9504411e-03
  5.2696303e-03
 -9.2547154e-03
  3.5956309e-03
  2.9269110e-03
  1.3468721e-02
  1.9402275e-04
 -1.3388213e-03
  8.7112105e-03
 -3.7133896e-03
  7.1079140e-03
  3.1538522e-03
  1.3286010e-02
  9.7743263e-03
  7.5922045e-04
  2.9695049e-04
  7.2464743e-04
  1.6942560e-03
  5.9748529e-03
  5.8347877e-04
 -4.8352843e-03
  9.9902963e-03
  7.0838109e-03
  9.3202759e-03
 -2.5436649e-04
  5.2944286e-04
  1.9071160e-05
  3.1554941e-03
 -4.1965479e-03
 -2.1068386e-03
 -2.3543364e-03
  1.2120476e-02
  6.7363675e-03
 -7.4211753e-04
 -4.1649081e-03
 -9.4176352e-04
  1.6615633e-02
  1.2073965e-02
 -1.9919679e-02
  7.7844970e-03
 -1.5461966e-03
  7.3017557e-03
  5.4425001e-03
  2.9150853e-03
  2.3356630e-03
 -3.3150949e-03
  3.6841403e-03
  1.9216875e-03
  3.4630313e-04
  1.1333706e-03
 -5.1045911e-03
 -5.0658751e-03
  7.6864152e-03
 -2.8035440e-03
  1.6773188e-01
 -4.7773283e-02
  2.1361306e-03
  2.1357205e-02
 -1.2962945e-01
  3.7614036e-01
  8.3047874e-02
  2.6347754e-03
 -3.6607236e-03
  1.7469510e-01
 -1.4882371e-01
 -2.6629712e-02
  2.1688060e-01
 -4.5696970e-02
  2.3949979e-02
  9.7084530e-02
 -9.3856609e-01
 -1.1745076e-01
 -1.6875712e-02
 -6.5815791e-02
 -8.6713322e-03
 -1.9129202e-02
 -3.9248015e-03
 -1.1724484e-03
  5.1199985e-03
 -8.1692747e-04
  8.0032926e-03
 -7.9169823e-03
  1.2523945e-03
 -2.6610661e-03
 -7.0236465e-03
  5.3356616e-03
  1.1264347e-02
 -3.8487499e-03
 -2.2820188e-03
  3.0318880e-04
 -2.3310899e-03
  1.4752334e-04
  1.0847311e-02
 -1.9261028e-03
  3.1068602e-03
  1.4705188e-02
 -1.2721514e-04
  5.6079840e-03
  8.8856667e-03
 -1.0771326e-02
 -8.0435182e-04
 -1.1397948e-02
  8.9984020e-04
 -2.6391123e-03
  2.7636951e-02
 -1.8932529e-03
  4.6668989e-03
 -1.4271340e-03
  3.8174150e-04
  1.4803089e-02
  1.4532674e-02
 -5.7780095e-03
 -1.0451077e-02
 -9.8767206e-03
 -4.1784802e-03
  9.4932003e-04
 -1.0239696e-02
  6.0615101e-04
  2.2056498e-04
  2.9605224e-03
 -6.2800362e-04
 -9.6959353e-04
 -2.6928266e-03
 -8.6894566e-03
  1.5138962e-03
 -8.1083067e-03
 -7.1628029e-03
 -3.8262592e-03
  6.6321301e-03
  2.1033115e-03
  1.0314533e-02
 -2.4574308e-03
 -2.7903544e-03
 -1.9779049e-03
 -3.6678379e-03
  7.4465346e-04
 -2.3613207e-03
  3.1106572e-03
  5.3219185e-03
 -6.1255503e-03
  1.0538333e-03
  1.1779388e-03
  2.6799671e-03
 -1.8856354e-04
 -1.1591652e-02
  4.7155045e-04
  1.7991347e-02
 -3.1550084e-03
  9.9866251e-03
  1.2697610e-02
 -6.8544764e-03
  4.3740552e-03
  2.3364776e-03
 -2.8872970e-03
 -5.7030860e-03
  7.5917919e-03
 -2.3214533e-03
 -2.1502732e-03
 -2.0820543e-03
 -1.2541198e-02
  2.5154802e-03
  3.4586582e-03
 -1.1125858e-02
  2.9833656e-02
  1.1702566e-03
  1.2428599e-04
  4.8016629e-04
  1.7927950e-02
 -1.3685906e-01
  2.8208544e-02
  3.5269827e-02
 -3.4148465e-03
  5.8635059e-03
 -6.7936012e-04
 -1.3990226e-03
  1.4270436e-03
  9.9910460e-03
  5.4562790e-03
  3.3672199e-02
  5.3696283e-03
  9.0521779e-03
  2.6058281e-02
  4.0955823e-03
 -4.0098927e-03
  5.4050367e-03
  1.7311711e-02
  8.6651379e-03
 -4.2957463e-03
  4.0228963e-03
  7.2330110e-02
  2.8550897e-03
 -9.7448993e-03
  1.1305494e-03
 -1.7900004e-03
  3.5349140e-01
 -1.9586045e-02
  1.7771257e-02
  2.7742315e-02
 -2.2910093e-03
  1.7050842e-02
 -2.5315075e-03
 -7.9776095e-03
  1.0499837e-02
 -1.2683738e-02
  4.5987074e-03
  7.5756270e-01
 -5.1901693e-04
  1.3762456e-02
 -5.8384461e-04
  2.8928598e-02
 -4.0254922e-04
  2.3895679e-03
 -4.4149030e-03
 -7.7015259e-03
 -4.0142873e-04
 -3.9430084e-03
  1.4722095e-01
 -2.9933837e-03
 -7.4030831e-03
 -1.4469188e-02
  2.6169317e-03
  9.6739670e-03
 -3.3347987e-02
  4.7491151e-03
  4.9834824e-03
 -4.3210974e-03
  5.4142377e-03
  3.2095020e-03
 -1.0911577e-02
 -1.8836351e-03
  2.4626954e-03
  1.7647820e-02
 -7.4870945e-03
 -3.7828081e-03
  4.5707005e-05
  4.2247656e-04
  1.1442580e-02
  1.2397107e-03
  2.6716581e-03
  2.4744426e-03
  1.6892286e-02
  9.2890989e-03
 -2.9765449e-03
  2.9687937e-03
  5.5006575e-03
 -1.1700140e-03
 -5.1100003e-03
 -4.6062391e-04
  2.3750983e-01
  5.0957175e-04
  9.1508037e-04
  1.7815771e-03
 -4.9014012e-03
  4.7405460e-03
 -5.7322658e-03
  4.9071811e-04
 -8.9990916e-03
  1.8383578e-03
  7.6547116e-03
 -5.5244360e-03
 -1.0756865e-02
  3.0165745e-03
 -1.1867768e-02
 -9.7400101e-05
  4.5869234e-03
 -3.0528448e-04
  5.1242663e-03
 -8.9172611e-04
 -1.5549129e-03
  9.5081385e-03
  4.6693012e-03
 -1.8512470e-03
  4.7540455e-04
  2.5639092e-03
  1.3753937e-02
 -5.3295209e-03
  6.4282394e-03
  5.0919764e-03
  4.4286740e-03
 -2.0532121e-03
  3.8794801e-03
  1.4275758e-03
 -2.2586177e-03
  1.1780304e-04
  6.0863938e-04
  2.2752073e-03
  1.9309749e-03
 -6.0903328e-04
 -1.1777153e-04
 -3.7729898e-03
 -1.2179342e-03
  1.4773915e-02
  6.4835688e-03
  5.9478027e-03
  1.5658779e-03
 -4.5684050e-03
  7.4739279e-03
 -4.7374615e-05
  1.1853378e-03
  2.8451697e-05
  5.1173372e-03
 -1.4841021e-02
 -1.1158690e-02
  1.6231013e-02
  8.3999438e-03
  1.4448151e-06
 -3.2679802e-03
 -2.8061536e-03
  1.3596952e-02
  1.2549437e-03
 -3.4524924e-03
 -2.2297066e-03
 -7.4072802e-03
 -2.4393518e-03
 -2.6063207e-03
 -1.2150819e-02
 -5.7269451e-03
  1.8887073e-04
 -6.0052574e-03
 -1.0591332e-03
 -7.6716375e-03
 -4.5574256e-03
 -6.5255370e-03
 -1.8289236e-02
 -1.4581813e-02
 -9.5122643e-03
 -3.9580218e-03
  9.8529317e-06
 -4.9523506e-03
  3.1041945e-03
 -1.1886714e-02
 -5.7656071e-03
 -6.2355935e-03
  9.7941197e-03
  1.2197595e-03
  2.5507119e-03
 -3.1961091e-03
  1.5465051e-02
  5.3667361e-03
  2.1403446e-03
 -3.7646196e-03
  1.8841721e-03
 -1.2476726e-02
  1.6274723e-03
  2.7667622e-03
  9.4739012e-03
 -5.0940057e-03
 -3.3101821e-03
 -5.8441219e-04
 -1.9708677e-06
  1.1521592e-03
  8.4406938e-03
 -1.8693449e-04
 -3.3789133e-03
 -2.1059334e-03
  6.8293167e-03
  9.4709974e-03
 -4.9504596e-03
 -5.2631907e-03
  1.1904599e-02
  2.3509257e-03
  5.8021974e-03
 -1.4285300e-05
  1.0919461e-03
  2.2460923e-03
 -1.9510353e-03
  2.8503793e-03
  7.8320848e-03
  9.1473834e-04
  4.2889034e-03
  3.0381542e-03
 -1.1674481e-03
  1.1334147e-03
 -3.1053275e-03
 -5.0709154e-03
 -7.4224509e-03
  1.1106058e-02
  1.0814499e-02
 -1.6909140e-03
  3.2696738e-03
 -1.1996515e-02
  1.4531163e-03
 -2.2257674e-03
  2.5991810e-04
  2.9682918e-03
  3.1871130e-03
 -2.5354396e-03
 -6.4587593e-03
  7.3793959e-03
  6.7864172e-03
 -3.9175828e-04
 -2.3286713e-03
  4.8418962e-03
 -7.1092690e-03
  3.2798273e-03
  7.8072230e-04
 -5.0713182e-03
  1.6360454e-03
  5.8062817e-03
 -9.7483513e-04
  5.7783956e-03
  2.2171937e-02
 -6.9741802e-03
 -8.9138607e-03
  4.3024778e-04
 -5.4416109e-02
 -6.2353835e-02
  3.6529411e-02
  6.8020888e-02
 -9.6331775e-04
  2.1384640e-01
  2.5538182e-01
 -1.9453265e-01
 -5.3160977e-02
  2.3386560e-03
 -3.9350516e-01
 -2.3915056e-02
  2.9991898e-01
 -2.0368999e-02
  1.0924876e-02
 -6.6139535e-03
  5.1188678e-03
  9.0649519e-03
 -3.2550897e-02
 -6.5022752e-02
 -5.0271515e-02
 -9.5988270e-03
  3.3914186e-03
 -4.0383670e-03
  7.3622931e-03
  2.1359062e-02
 -3.2358412e-03
  2.5423844e-03
  1.5939970e-02
  1.7853483e-04
 -2.5611999e-04
 -1.3785621e-03
 -1.0488414e-02
 -3.2167451e-03
  9.6069132e-05
  6.1839670e-03
  8.8436494e-04
 -2.3247339e-03
 -1.6020240e-03
 -7.4541825e-03
  2.8772450e-03
  5.8182580e-03
 -1.4841474e-03
 -1.7767249e-03
  9.0513639e-03
  2.0653817e-03
  6.2648868e-03
 -2.0536553e-04
  1.5408291e-04
  3.5938050e-03
 -1.2117325e-02
 -1.0795569e-03
  5.9258393e-03
  1.7307743e-02
  1.4440200e-01
  5.0849328e-04
 -4.1262065e-03
  2.6655694e-02
  4.4304417e-03
 -1.6945858e-02
  8.7126769e-04
 -9.7647524e-03
 -9.8140230e-03
  8.7827966e-03
 -6.9577880e-03
  5.8586579e-03
  3.7347490e-03
 -5.6386124e-03
  8.8067893e-03
 -4.7345765e-04
  1.9938424e-03
 -4.9592182e-03
 -1.8861007e-02
 -4.4134818e-03
  3.9953823e-04
 -4.2202952e-03
 -3.5155131e-03
  1.5250439e-03
 -4.0592602e-04
 -1.4757062e-03
 -3.7560037e-03
  9.0214685e-02
  4.6985745e-03
 -7.0507484e-03
 -1.6967512e-03
  1.5713930e-03
 -9.4067287e-03
  1.2597872e-03
  2.5260779e-03
  4.5287958e-03
 -8.9734690e-03
  8.5578496e-03
  1.7417914e-03
 -1.4005762e-03
 -4.6798046e-04
  4.0641648e-04
 -4.1605774e-03
 -8.0432221e-03
  4.5708492e-03
 -8.8548625e-04
 -1.3029105e-03
  1.4958652e-02
  3.6832370e-04
 -4.7380137e-03
  5.2570523e-04
  1.5988315e-03
 -9.1395015e-03
 -4.2456697e-04
  8.5887307e-04
  2.3963935e-04
  3.7298757e-03
 -2.9052356e-03
 -5.3404165e-03
  2.3344364e-03
 -4.7969664e-03
 -7.4785291e-03
  5.2861175e-03
 -5.0464012e-03
 -1.0155452e-03
 -1.1461204e-03
 -2.2171522e-03
  7.3242914e-03
 -2.9236861e-03
  1.2531677e-03
  7.6792890e-04
  1.1006567e-03
  1.7725550e-04
 -1.9970893e-04
 -4.2261318e-03
  3.1881663e-03
  1.8616348e-03
 -2.1808987e-04
  2.7393209e-04
  6.7092902e-03
  2.1183344e-03
 -2.5058948e-03
  8.6951320e-04
  1.2173081e-03
  1.5229448e-02
  5.8601217e-06
  4.8408024e-03
  8.7275221e-05
  1.4973690e-03
  8.9360023e-04
 -6.1300979e-03
 -9.6093193e-03
 -1.1229022e-02
  8.2655187e-04
  5.6937762e-04
 -8.4988149e-03
 -4.0750043e-03
 -5.0768955e-03
  3.3837545e-03
 -4.3890942e-03
 -2.1020332e-04
  2.2962480e-03
  2.2943314e-02
 -2.7942196e-03
 -1.1878327e-03
 -1.9571532e-03
  6.2516378e-03
 -7.9383282e-03
  2.6025604e-02
  4.6225847e-03
  1.1560399e-03
 -1.4048892e-03
 -4.3611089e-03
 -1.3668602e-04
 -4.4408115e-04
 -7.6498222e-03
  3.8215397e-03
 -5.1148571e-03
  9.8715676e-04
 -6.8156049e-03
  9.3465904e-05
  1.5370685e-02
  1.2171674e-02
 -2.0128405e-03
 -1.5686738e-03
  2.5867994e-03
  9.8912204e-03
  7.2565288e-03
  2.8220490e-03
 -5.9933523e-03
 -4.1959817e-03
 -3.6075106e-03
  1.4726651e-03
  4.3042055e-03
 -1.4547360e-03
  3.6212662e-01
  8.5948203e-03
 -3.3285653e-03
 -4.2640124e-03
 -6.1195961e-04
  1.6668851e-02
 -8.8647932e-02
  2.5232317e-02
 -4.8652338e-03
  9.1775326e-04
  1.3120845e-03
 -5.2997028e-03
 -4.3424452e-03
 -2.1227596e-03
 -8.3109206e-03
  5.4092142e-03
  2.0596231e-04
 -7.1275462e-03
 -3.0415424e-03
  2.0539571e-02
  7.5089559e-03
 -1.4025789e-03
  8.9341346e-03
 -8.4362011e-03
 -1.0181335e-03
  6.4154603e-03
 -2.7947982e-03
 -1.0030288e-01
  7.4979574e-03
 -3.8862890e-03
 -1.8965789e-04
 -1.4096632e-03
 -2.8137254e-04
 -1.6748643e-02
  4.2676325e-03
  1.3226285e-02
  1.4041252e-03
  1.5299763e-02
  6.1805393e-03
  1.9019911e-03
  4.0509463e-03
 -1.8582197e-02
  1.1865501e-02
 -2.7166172e-03
 -2.1695809e-03
  2.5845889e-03
  1.1737779e-02
 -7.4830686e-04
 -6.5426682e-03
 -1.7385373e-03
  1.3418301e-04
  5.5174460e-03
  2.1831119e-03
  6.4122789e-03
 -6.8996963e-03
 -1.6881968e-03
 -2.8756368e-03
 -1.1960573e-03
 -1.1275480e-04
 -7.8169344e-04
  1.7469982e-03
  5.1935064e-03
  4.9715429e-03
  7.7897836e-03
 -7.1472358e-03
 -3.9104391e-03
  1.2292480e-03
  7.7713891e-03
 -6.1209837e-04
  1.1310281e-03
 -2.7989587e-03
  1.3960459e-02
 -2.8672235e-04
  6.3751237e-03
  1.5388280e-03
  4.9912273e-03
  2.6868253e-03
 -3.1716665e-03
  3.1922231e-03
 -8.1147226e-03
 -1.7459298e-03
 -6.4934450e-03
 -1.2666038e-02
  1.9947405e-03
  2.7525807e-03
  2.0471166e-03
  1.3611868e-03
 -4.3668943e-03
 -6.3652317e-03
  3.6841454e-03
  1.0806376e-02
 -1.2989788e-02
  2.9707118e-03
 -2.9017250e-03
  2.1932933e-03
  9.8493742e-03
  1.2798982e-03
 -1.6988881e-02
 -7.2133215e-03
  7.3074189e-04
 -1.1926467e-03
  9.7321579e-04
 -6.1506126e-03
  9.2070305e-04
  9.3803846e-04
  1.8911995e-03
  6.1767790e-03
  1.0443951e-03
  2.2077683e-04
  9.9657951e-03
 -1.1115562e-03
 -3.6346361e-03
  7.3945057e-03
  5.7617645e-04
  3.1308364e-03
 -2.4493542e-03
  2.9985812e-03
  1.1929227e-03
  8.3876890e-04
 -9.2848728e-04
  5.9232600e-03
  8.1917811e-03
 -6.5624318e-03
 -3.2909615e-03
 -1.6668893e-02
  1.0233246e-04
 -3.6489528e-03
  5.9172059e-03
  1.2183605e-02
 -1.1887050e-02
 -9.9151507e-03
 -4.9936934e-03
  1.2525734e-02
  3.5599351e-03
  1.0638812e-03
  7.7373493e-03
  1.8794384e-02
  8.1379274e-03
  3.2479374e-04
  6.3408669e-03
 -4.2705513e-03
  6.6112806e-03
 -2.7765306e-03
  3.3177794e-03
 -2.5646826e-03
  7.6350925e-04
  6.9465050e-03
 -4.2356625e-03
 -8.6928327e-03
 -5.7024090e-03
  2.6969053e-03
  1.4138320e-03
 -2.1656148e-02
 -5.8531486e-03
 -5.0290446e-03
 -6.6472054e-03
 -6.0093850e-03
 -1.5854876e-04
 -8.1920042e-04
  3.0920891e-02
 -1.3547287e-03
 -3.1401252e-03
 -6.3039269e-04
  1.3727615e-04
  5.1774848e-03
  4.3390561e-03
 -8.5243623e-04
  4.8407186e-03
 -2.9138289e-03
 -2.6120612e-02
 -2.3903677e-03
  5.3419750e-03
 -6.9080689e-04
 -1.0026379e-02
  1.8868675e-03
 -9.8622879e-03
  8.8080531e-03
 -6.0570231e-03
  2.1323549e-04
  8.5289235e-04
 -2.3182537e-03
  2.4519919e-03
  1.1451588e-02
  4.6522873e-03
 -2.8512899e-03
  6.9119264e-03
  9.9474424e-03
  8.4407255e-04
  2.3169483e-03
  2.9226398e-01
 -1.3603333e-01
 -1.9937390e-01
 -6.7258805e-01
  1.3379744e-01
  2.1812904e-01
 -2.4695005e-01
 -6.9130516e-01
 -5.2202129e-01
 -6.7492104e-01
  4.3736409e-02
  1.3691286e+00
 -1.3938332e+00
  6.8780112e-01
 -3.7718806e-02
 -5.6905150e-01
 -2.9210203e+00
 -3.1627297e-02
  1.0103107e-01
 -2.8305082e-02
 -1.2913212e+00
  3.4398848e-01
 -1.3038139e-04
 -3.6413080e-04
  1.6627696e-01
 -1.7676369e-03
  4.2506072e-04
  7.8317849e-03
 -2.0226739e-02
  1.2785810e-03
  3.6210045e-03
  7.8242049e-03
  4.5436351e-03
 -6.6491142e-03
  9.7237853e-03
  6.1315025e-04
  5.1786187e-03
 -1.1388266e-03
 -3.5084980e-03
  6.7619551e-03
  6.1917743e-03
  4.1436413e-03
  2.8876131e-04
  9.4923722e-03
 -4.6767723e-03
 -2.6480539e-03
 -1.8805127e-03
  5.7025678e-03
  3.1977647e-03
 -4.7167545e-04
  4.4783606e-04
 -4.3103676e-03
 -2.1440393e-04
  3.1705229e-03
  1.6077432e-03
 -1.1059814e-03
  1.2815833e-03
  3.4822717e-03
  1.7391940e-03
  2.6226705e-03
 -2.8993949e-02
  2.7270420e-04
  6.7983898e-03
 -2.4032115e-04
 -1.1222718e-02
  2.0874543e-03
 -7.2634942e-04
 -5.4581114e-03
 -1.1150750e-03
  8.9357160e-03
 -3.2452689e-03
  4.7484525e-03
  4.7786115e-03
  8.8203093e-03
 -3.3595108e-03
  9.3904563e-04
  4.0825745e-03
 -1.9591139e-03
  7.4341940e-03
 -1.2586887e-02
  8.3914204e-03
  3.4029999e-01
 -1.0052136e-02
 -3.8377371e-01
 -3.5051471e-01
  1.1527172e-01
  3.5670072e-01
 -2.4323513e-01
  1.0098255e+00
 -3.3248013e-01
  3.3831495e-01
  2.0268319e+00
  3.6693594e-01
 -1.6126668e+00
  8.2620144e-01
  4.8830605e-01
 -1.9716707e+00
  5.0594729e-01
  1.0385010e+00
  2.1859701e-01
  8.2973951e-01
  9.1551828e-01
  1.4096885e+00
 -1.3835791e-01
  8.2788515e-01
  6.6855669e-01
 -4.0264833e-03
 -2.3430081e-01
 -2.2900417e-03
  2.3104319e-02
  1.9658147e-03
 -1.3615006e-03
 -6.7831394e-03
 -2.7442297e-03
 -4.3968628e-03
  2.4012493e-03
  6.6329013e-03
  3.2694673e-03
  1.3161345e-02
 -3.8770013e-03
 -1.0405164e-02
  1.0128411e-02
  1.1001059e-03
  8.0591079e-04
 -1.0419943e-02
  7.9290364e-03
 -4.3429206e-03
 -6.1648786e-03
 -1.7182315e-02
 -6.6547203e-03
 -1.1281194e-03
 -1.3292638e-02
 -1.0266566e-03
 -8.8502589e-04
 -1.0185497e-04
  1.5847261e-05
 -5.1627224e-03
 -6.8290852e-04
 -2.3889870e-03
 -9.7013479e-03
 -9.8415166e-03
 -6.0356627e-03
 -3.1595019e-04
  1.7936897e-02
  1.6924978e-03
 -2.8620712e-03
 -3.5723073e-03
  2.5424245e-03
  1.1065897e-02
  9.7543315e-04
  1.0790192e-02
 -2.0583115e-04
  1.2242964e-02
  6.8106903e-03
 -5.7974108e-03
 -4.7722338e-03
  5.5299425e-03
  3.3197580e-03
 -8.9735780e-03
  1.5103088e-04
  3.7666573e-03
 -6.0734828e-03
 -3.6952035e-03
  2.9525729e-03
 -5.4609291e-03
 -7.5678346e-03
  1.1947756e-02
  1.9741419e-03
  8.7692272e-03
 -8.3808592e-03
 -1.7871668e-03
  1.2560342e-03
  4.2788722e-03
  1.4926940e-02
 -4.7179982e-03
  5.2757123e-03
 -5.7405757e-04
 -1.4750195e-03
 -7.3875696e-03
  1.6244540e-02
 -2.7827623e-03
  7.6808408e-04
 -2.8454664e-04
  1.5478306e-03
 -7.6607484e-03
  7.2258874e-04
 -4.1675218e-03
 -5.1357611e-03
 -1.8877665e-03
 -3.3289143e-03
 -6.4043244e-03
 -3.7513499e-04
  9.0055121e-03
 -1.9306701e-04
 -3.8933915e-03
 -1.2019243e-02
 -1.0425895e-03
 -9.6808719e-03
 -5.0393059e-03
 -1.2683452e-02
 -1.5427843e-03
 -3.1631589e-03
 -3.3264307e-03
  1.2361221e-03
 -9.3936233e-04
 -8.1097241e-05
 -8.7505840e-03
  1.8448237e-03
 -3.2223526e-03
  8.7354996e-04
  5.1337871e-04
  4.2964527e-04
 -1.2644548e-03
 -1.1858280e-03
 -2.5549252e-04
  4.1828869e-04
  9.7743847e-05
 -4.5260787e-03
  2.3134835e-03
 -1.1127056e-03
  4.7059567e-03
  2.5664421e-03
 -6.8036560e-03
  1.1856306e-02
  1.6624278e-03
  7.8344177e-03
 -2.2669286e-03
 -7.7648100e-04
 -1.0475167e-03
 -3.4105901e-03
 -5.0384263e-03
  1.6088006e-03
 -1.2216131e-02
  5.8593699e-03
  2.7306816e-03
 -6.4671673e-03
  1.8987514e-03
  2.7624234e-03
  7.4374734e-04
 -2.6087796e-03
 -3.1721171e-03
 -6.7438763e-03
  9.6483678e-03
  3.8050364e-03
 -2.9887401e-03
  1.5176433e-03
  2.4364546e-03
 -4.1101547e-04
  1.7611448e-03
  3.0645770e-03
  2.8582817e-04
 -2.5743912e-03
 -7.5733149e-04
  5.0897291e-04
  3.7336457e-03
  2.3681598e-03
 -4.5319609e-03
  7.2890096e-03
 -7.8522153e-03
  1.2836412e-03
 -6.4736679e-03
  7.7654598e-03
 -4.5279937e-04
  1.5880534e-02
  8.7136189e-03
  6.9366498e-03
 -6.9098291e-04
  8.4064959e-05
  6.2543279e-03
 -2.9701539e-03
 -3.9569261e-03
 -2.0346552e-04
 -4.6306159e-03
  1.2093085e-03
 -2.1267587e-03
  6.5559899e-03
  6.2234595e-04
  3.9619748e-03
  3.6311699e-03
 -7.8849746e-03
 -1.4761798e-02
  2.4082929e-04
  5.5949291e-04
  3.9891894e-03
 -8.7837745e-03
 -3.2712023e-03
  6.7856004e-03
  3.1606380e-03
 -8.9937523e-03
 -1.6094830e-02
  1.4627294e-03
 -1.9647763e-04
 -4.1969297e-03
  4.4506029e-03
 -5.8785692e-04
 -2.9157584e-03
  3.0366976e-03
  5.2246107e-03
  3.4969398e-01
  2.5648174e-01
  3.5876094e-03
 -1.5858696e-03
 -3.6862793e-03
 -2.2301970e-03
  2.5053208e-03
 -4.2359531e-03
 -8.7743849e-03
  3.5405245e-03
 -3.0256875e-03
 -1.4146522e-01
 -8.4330945e-04
 -1.1014676e-03
  1.2263569e-02
  4.1054310e-03
 -1.4253400e-03
 -2.5964174e-03
  6.6823384e-04
 -1.1973056e-02
 -4.8079313e-04
  1.0136872e-03
  4.8102792e-03
  1.0187385e-03
 -1.1451904e-01
  7.1209772e-03
  1.8644657e-02
  2.0861546e-04
 -1.3717782e-03
  2.2030803e-03
 -3.4114770e-03
  2.7251849e-02
  2.8854734e-01
 -8.2436316e-03
 -1.7890717e-03
 -1.7615256e-03
 -2.7805730e-03
 -1.3171384e-03
  2.6112282e-01
  7.8360701e-04
  3.6159814e-03
 -2.2294080e-01
  4.8804111e-03
  8.8362569e-05
 -1.9694105e-04
  4.0405928e-03
 -3.4246475e-03
  6.9410022e-04
  7.2542932e-03
 -3.5725519e-02
 -4.2876408e-01
  2.4799170e-01
  7.1777510e-03
 -6.5158065e-03
 -6.5180077e-04
  1.5149464e-02
 -9.5333621e-02
  3.1800077e-03
  6.7804761e-02
 -4.7388626e-04
  6.0343510e-03
 -3.0590186e-01
 -3.0868044e-03
 -1.6311279e-03
 -9.0449704e-03
  1.5119785e-01
  1.2475327e-01
  1.4146703e-01
  4.0591627e-02
 -2.4898228e-04
 -1.3635653e-03
 -7.8272767e-04
  2.8278355e-02
  2.2757007e-03
 -3.9667222e-01
 -1.5557442e-03
 -1.6692857e-01
  9.4287418e-02
 -1.3505612e-02
 -1.1076115e-02
  1.9381271e-04
  2.7300104e-01
  1.8883036e-01
 -1.0885263e-03
  5.6359260e-03
 -9.6272929e-03
  9.4343217e-05
 -8.7554986e-03
  7.8652167e-01
  6.4461288e-04
  8.6320406e-03
  1.5374000e+00
 -5.8571189e-03
  9.1809442e-04
  8.2142940e-03
 -9.5356954e-04
 -6.6340039e-04
 -5.9606824e-03
 -8.6311884e-06
  8.4194326e+00
  1.0029378e+00
  8.7173402e-01
 -1.0016294e+00
  4.1214669e-01
  8.3648050e-01
  4.6591562e-01
  4.2242056e-01
  1.0952729e+00
  3.5857856e-01
 -3.0700475e-02
 -2.5098920e-02
  3.5951745e-03
 -1.0448044e-01
 -2.2664643e-03
 -9.9564292e-02
 -2.0605171e-02
 -6.9050351e-03
 -1.9082758e-01
  1.1042658e+00
 -1.4992480e+00
 -4.4215301e-01
 -4.7521836e-01
 -8.9696234e-01
 -5.3950161e-01
  1.0401762e-01
  7.1719450e-01
  5.5190688e-01
  1.4746228e-01
 -1.2459904e+00
  7.7162814e-01
 -8.3369339e-01
 -8.7763339e-01
 -6.4346904e-01
  1.1900295e+00
  6.4633077e-01
  2.0873483e-01
  6.1036646e-01
  8.6629139e-03
 -1.8696450e-01
 -1.4085071e-01
  1.7189784e-01
 -9.1561452e-02
 -8.8378578e-02
  1.5521207e-02
  4.2589237e-03
 -7.9769844e-01
  5.0749481e-02
 -1.4067276e-03
 -1.3103987e+00
  1.6166158e-01
 -8.5784115e-02
  5.0799555e-01
 -9.1181660e-01
  5.8697116e-01
  1.2420812e-01
 -2.6061574e-01
 -6.9947028e-01
  9.0546697e-01
 -1.3395483e+00
 -5.2701253e-01
  2.4753128e-01
  8.3746684e-01
  5.7311273e-01
  7.6698542e-01
  2.8298062e-01
  1.2888832e+00
 -8.6252981e-01
 -3.9603168e-01
  1.6153226e+00
  1.2357616e-01
 -2.1349571e+00
 -1.0755761e+00
  8.7974519e-02
  4.5351606e-02
 -1.5060126e+00
 -1.3522580e+00
  1.3028485e+00
 -3.1757036e-01
 -8.5704529e-01
  1.2490579e+00
  9.0812498e-01
 -5.3893226e-01
  8.5488707e-02
 -1.1884205e+00
 -1.2189482e-01
 -7.9485500e-01
 -3.7932355e-02
 -8.2373929e-01
  1.8654120e+00
  2.5356904e-01
  3.1956074e-01
  2.4295385e+00
 -5.1296383e-01
 -1.8344661e-03
  9.0673494e-01
  5.3150481e-01
  2.0026250e-01
 -4.1609290e-01
 -7.2086912e-01
  4.1543055e-02
  4.1543055e-02
  4.1543055e-02
  4.1543055e-02
  4.1543055e-02
  4.1543055e-02
  4.1543055e-02
  3.8423485e-01
  3.8423485e-01
  3.8423485e-01
  3.8423485e-01
  3.4351621e-02
  3.4351621e-02
  3.4351621e-02
  3.4351621e-02
  4.5923971e-02
  4.5923971e-02
  4.5923971e-02
  4.5923971e-02
  2.7131518e-02
  2.7131518e-02
  2.7131518e-02
  2.7131518e-02
  1.4650402e-02
  1.4650402e-02
  1.4650402e-02
  1.4650402e-02
